var preTrainedBrain = {
  "layers": [
    {
      "0": {},
      "1": {},
      "2": {},
      "3": {},
      "4": {},
      "5": {},
      "6": {},
      "7": {},
      "8": {},
      "9": {},
      "10": {},
      "11": {},
      "12": {},
      "13": {},
      "14": {},
      "15": {},
      "16": {},
      "17": {},
      "18": {},
      "19": {},
      "20": {},
      "21": {},
      "22": {},
      "23": {},
      "24": {},
      "25": {},
      "26": {},
      "27": {},
      "28": {},
      "29": {},
      "30": {},
      "31": {},
      "32": {},
      "33": {},
      "34": {},
      "35": {},
      "36": {},
      "37": {},
      "38": {},
      "39": {},
      "40": {},
      "41": {},
      "42": {},
      "43": {},
      "44": {},
      "45": {},
      "46": {},
      "47": {},
      "48": {},
      "49": {},
      "50": {},
      "51": {},
      "52": {},
      "53": {},
      "54": {},
      "55": {},
      "56": {},
      "57": {},
      "58": {},
      "59": {},
      "60": {},
      "61": {},
      "62": {},
      "63": {},
      "64": {},
      "65": {},
      "66": {},
      "67": {},
      "68": {},
      "69": {},
      "70": {},
      "71": {},
      "72": {},
      "73": {},
      "74": {},
      "75": {},
      "76": {},
      "77": {},
      "78": {},
      "79": {},
      "80": {},
      "81": {},
      "82": {},
      "83": {},
      "84": {},
      "85": {},
      "86": {},
      "87": {},
      "88": {},
      "89": {},
      "90": {},
      "91": {},
      "92": {},
      "93": {},
      "94": {},
      "95": {},
      "96": {},
      "97": {},
      "98": {},
      "99": {},
      "100": {},
      "101": {},
      "102": {},
      "103": {},
      "104": {},
      "105": {},
      "106": {},
      "107": {},
      "108": {},
      "109": {},
      "110": {},
      "111": {},
      "112": {},
      "113": {},
      "114": {},
      "115": {},
      "116": {},
      "117": {},
      "118": {},
      "119": {},
      "120": {},
      "121": {},
      "122": {},
      "123": {},
      "124": {},
      "125": {},
      "126": {},
      "127": {},
      "128": {},
      "129": {},
      "130": {},
      "131": {},
      "132": {},
      "133": {},
      "134": {},
      "135": {},
      "136": {},
      "137": {},
      "138": {},
      "139": {},
      "140": {},
      "141": {},
      "142": {},
      "143": {},
      "144": {},
      "145": {},
      "146": {},
      "147": {},
      "148": {},
      "149": {},
      "150": {},
      "151": {},
      "152": {},
      "153": {},
      "154": {},
      "155": {},
      "156": {},
      "157": {},
      "158": {},
      "159": {},
      "160": {},
      "161": {},
      "162": {},
      "163": {},
      "164": {},
      "165": {},
      "166": {},
      "167": {},
      "168": {},
      "169": {},
      "170": {},
      "171": {},
      "172": {},
      "173": {},
      "174": {},
      "175": {},
      "176": {},
      "177": {},
      "178": {},
      "179": {},
      "180": {},
      "181": {},
      "182": {},
      "183": {},
      "184": {},
      "185": {},
      "186": {},
      "187": {},
      "188": {},
      "189": {},
      "190": {},
      "191": {}
    },
    {
      "0": {
        "bias": -0.161018060963134,
        "weights": {
          "0": 0.015859305455243222,
          "1": -0.20980416925884368,
          "2": -0.025561699324423252,
          "3": 0.46552024706869793,
          "4": -0.16172248252618526,
          "5": -0.08387088963906317,
          "6": 0.06339237434511616,
          "7": 0.06479222018306163,
          "8": -0.009677706188817806,
          "9": 0.1202926079447553,
          "10": -0.2656648324475881,
          "11": -0.1444047949299112,
          "12": -0.1609524196956318,
          "13": 0.2956843405448633,
          "14": -0.6063243414235311,
          "15": -0.21524088317080955,
          "16": 0.10429451763293905,
          "17": 0.47963421520967237,
          "18": 0.11344079459240596,
          "19": 0.49726316757419914,
          "20": -0.2167047019330234,
          "21": -0.12347524156712116,
          "22": -0.11554772477455794,
          "23": -0.24425752588260433,
          "24": -0.00933927467953577,
          "25": -0.08677568715690895,
          "26": 0.033273768335234835,
          "27": 0.04026966785784393,
          "28": 0.06074595034297929,
          "29": 0.1837327555513725,
          "30": 0.11763879466258373,
          "31": 0.3338389895115927,
          "32": 0.11015775396923326,
          "33": -0.10824297349087486,
          "34": -0.06567438468904375,
          "35": -0.042770975343462234,
          "36": -0.050960179208183964,
          "37": -0.057238956914251994,
          "38": 0.005629421121364824,
          "39": 0.0526291799154935,
          "40": -0.13844483381710587,
          "41": 0.06383041655862584,
          "42": 0.11085444068720628,
          "43": 0.14665596837008288,
          "44": -0.22100440481747174,
          "45": -0.10697075805707876,
          "46": -0.32739939665681833,
          "47": 0.11801934091455582,
          "48": -0.04810389911758712,
          "49": -0.08882707429899026,
          "50": 0.13689844790242658,
          "51": -0.1488650334769866,
          "52": 0.1650757927506396,
          "53": -0.05441012055903242,
          "54": -0.18374428383671385,
          "55": -0.03593077064036168,
          "56": 0.060025174299144696,
          "57": 0.22304925866757094,
          "58": -0.11040325198500646,
          "59": 0.081261574853072,
          "60": -0.33026155703032584,
          "61": -0.07755421452029643,
          "62": -0.039856717996884304,
          "63": -0.14243856639752608,
          "64": 0.06122522120105566,
          "65": 0.06022128442222991,
          "66": -0.07791131610567886,
          "67": -0.1623777014054684,
          "68": -0.09960654487841074,
          "69": -0.01566522237226602,
          "70": -0.0615225944262307,
          "71": 0.02689206400530395,
          "72": 0.00012210452679807778,
          "73": -0.07935984806566443,
          "74": -0.02519242885800647,
          "75": -0.07024464365438103,
          "76": 0.04684076788487202,
          "77": -0.07277600033771744,
          "78": -0.1387780075296686,
          "79": -0.07558747068823042,
          "80": 0.14710538403432918,
          "81": -0.16296260238829005,
          "82": 0.07454843257542419,
          "83": -0.023467289380202434,
          "84": 0.1731177799009103,
          "85": -0.20722140900069957,
          "86": -0.0186526805980865,
          "87": -0.042790781638163654,
          "88": -0.232837686958772,
          "89": -0.2627695793600406,
          "90": 0.22667432530271994,
          "91": -0.046285485403396845,
          "92": 0.08844904608922055,
          "93": 0.0423152464881835,
          "94": -0.20664869058665147,
          "95": -0.01709690111543791,
          "96": 0.060095905522068796,
          "97": 0.2857198157895238,
          "98": 0.007465264351491242,
          "99": 0.5008051579273365,
          "100": -0.19183051084440816,
          "101": -0.015211811782010354,
          "102": -0.027242801831448296,
          "103": -0.11096556096826202,
          "104": -0.08794169898867873,
          "105": -0.1784110237835848,
          "106": -0.23669641573119965,
          "107": -0.06393656650214267,
          "108": 0.21351880548109048,
          "109": 0.3505949148708056,
          "110": -0.0961122856077323,
          "111": 0.4133099583849337,
          "112": -0.6647955790147515,
          "113": -0.4042968852616368,
          "114": 0.005098764979791155,
          "115": 0.2084300688310934,
          "116": 0.04042377664893057,
          "117": 0.014700717050013565,
          "118": 0.07850656875247523,
          "119": -0.17834246784723615,
          "120": -0.13266345238463265,
          "121": 0.14097751756453303,
          "122": -0.10773646787325078,
          "123": 0.10802956792820828,
          "124": 0.3090210756816955,
          "125": 0.25211705604971973,
          "126": -0.6059672736960343,
          "127": -0.18136227482819664,
          "128": -0.6835722856026899,
          "129": -0.02734429551878292,
          "130": -0.07451253219391894,
          "131": 0.1072789440323954,
          "132": 0.02394655115077934,
          "133": 0.10377955818679697,
          "134": 0.032735586041412044,
          "135": -0.19867394406857944,
          "136": -0.24106974178767418,
          "137": -0.04850736004077923,
          "138": -0.08580263235583102,
          "139": -0.09020597858183893,
          "140": -0.11437213254794681,
          "141": 0.18808166215335262,
          "142": -0.1247570101303726,
          "143": -0.029773776482264053,
          "144": -0.22854317783768094,
          "145": 0.07808528922951401,
          "146": -0.033003978143429674,
          "147": 0.1558791072441939,
          "148": 0.009268005577060257,
          "149": 0.07360693791010925,
          "150": 0.2066846375330576,
          "151": 0.056848148304905664,
          "152": -0.05735295453351634,
          "153": -0.023067844907847537,
          "154": 0.12116969712434413,
          "155": -0.15537712813185633,
          "156": -0.166298211763086,
          "157": 0.003577099483193061,
          "158": 0.12408368187019926,
          "159": 0.07909000090319604,
          "160": -0.01858100195099455,
          "161": -0.06543230071395874,
          "162": 0.054460648985888,
          "163": -0.15627246206760737,
          "164": 0.03943481536898616,
          "165": 0.14611906464071872,
          "166": -0.09100250678451084,
          "167": -0.12809833099265283,
          "168": -0.18813513387946806,
          "169": -0.18966512212275233,
          "170": 0.06863430344798896,
          "171": -0.16590473554610682,
          "172": -0.11456805538190465,
          "173": -0.1395174129227984,
          "174": 0.048689194204145816,
          "175": -0.2156170204833668,
          "176": 0.16196287373610224,
          "177": 0.5366897717457656,
          "178": 0.14970617133517714,
          "179": 0.12700365798909474,
          "180": 0.11102339136707422,
          "181": -0.09251787258083775,
          "182": 0.2994273290509225,
          "183": 0.4863723605030333,
          "184": -0.28398669841206337,
          "185": 0.5088074861037634,
          "186": 0.019633261663737592,
          "187": -0.24281438405799027,
          "188": 0.1443347069097222,
          "189": -0.14567846169601448,
          "190": 0.28028948669305803,
          "191": -0.28706261627294566
        }
      },
      "1": {
        "bias": -0.1472845771643712,
        "weights": {
          "0": -0.2173198544449394,
          "1": -0.33272428380444863,
          "2": -0.18433006564169052,
          "3": 0.09261044340688679,
          "4": -0.1406374780953916,
          "5": -0.13042209446755912,
          "6": -0.1666095231846105,
          "7": -0.16727266593572296,
          "8": -0.16527008280801236,
          "9": -0.11164149873794661,
          "10": -0.24594559541013636,
          "11": 0.07350143364782698,
          "12": -0.18600654409581133,
          "13": 0.028852857694668176,
          "14": -0.14322314908942413,
          "15": -0.2507588647786766,
          "16": 0.11490432107440768,
          "17": 0.05521926150707931,
          "18": -0.022514618630087475,
          "19": 0.1574133729251935,
          "20": -0.2880592280791759,
          "21": 0.12590908063053327,
          "22": -0.08731501027862938,
          "23": 0.02469203036423108,
          "24": -0.0954086906964085,
          "25": 0.051499482701284634,
          "26": -0.24752710630031904,
          "27": -0.2210782175119037,
          "28": 0.14287859460838723,
          "29": -0.15385707166167073,
          "30": 0.025215061096007393,
          "31": 0.1861362309197846,
          "32": -0.1059800951144124,
          "33": -0.11648877317211263,
          "34": 0.12019386463920016,
          "35": 0.0891139749230068,
          "36": 0.19457878498273398,
          "37": -0.24330011389110262,
          "38": -0.16569944509560666,
          "39": 0.08581461173567712,
          "40": -0.1745628130493726,
          "41": 0.031631320663679324,
          "42": 0.24634657245375044,
          "43": -0.12475436946397632,
          "44": -0.19163355710711316,
          "45": 0.12567510780063676,
          "46": -0.0028995600438545223,
          "47": -0.03974227735875549,
          "48": -0.0340379772993813,
          "49": 0.07812298376537176,
          "50": 0.17721958980276867,
          "51": -0.09862048861878045,
          "52": 0.15909982096739955,
          "53": 0.06835525834627401,
          "54": -0.05652425962179171,
          "55": 0.16464791320696104,
          "56": -0.12121714333493683,
          "57": -0.02981798267837014,
          "58": 0.16151832174625044,
          "59": 0.22490050722620447,
          "60": 0.02904307932514362,
          "61": -0.22841115467561865,
          "62": -0.09422655338641239,
          "63": 0.01194991479480617,
          "64": -0.15675156846367508,
          "65": -0.12662103745419803,
          "66": -0.05127357532755097,
          "67": 0.05793963732054874,
          "68": -0.1779544811662615,
          "69": -0.013957380528519444,
          "70": -0.07872733592306017,
          "71": -0.12530244193274268,
          "72": -0.037895224382503034,
          "73": -0.03360368880482215,
          "74": 0.06311911119003573,
          "75": -0.1081501236738005,
          "76": -0.06867081314142993,
          "77": -0.10877811944427934,
          "78": -0.09348214728264939,
          "79": -0.15410306546235414,
          "80": 0.09955468395822964,
          "81": -0.15277907973665936,
          "82": -0.11610548058760467,
          "83": 0.02452174523986187,
          "84": 0.2141989294191931,
          "85": -0.012236391757834907,
          "86": -0.17051292354624442,
          "87": -0.08459091203508187,
          "88": 0.026779051448058477,
          "89": 0.038336144855697724,
          "90": 0.038346488322886514,
          "91": -0.0189377974201113,
          "92": 0.04129462183586768,
          "93": -0.13215099211192882,
          "94": -0.0023067059730498642,
          "95": 0.18752087879947185,
          "96": 0.06675267963396284,
          "97": -0.10994661903718378,
          "98": 0.11408396745862312,
          "99": -0.08130910261233863,
          "100": 0.07418031671666311,
          "101": 0.12105307764249122,
          "102": 0.09697380618727498,
          "103": 0.18132361261529462,
          "104": 0.05546416978419055,
          "105": 0.09153124214858255,
          "106": -0.08226797986033682,
          "107": 0.17567874752501975,
          "108": -0.018430704158782212,
          "109": 0.05145915892784236,
          "110": -0.012492828886520358,
          "111": -0.0012848231254259299,
          "112": -0.03808088519252049,
          "113": -0.04245661686875764,
          "114": -0.06811727736091527,
          "115": -0.14120330484724808,
          "116": 0.13374857127598733,
          "117": 0.17924075281436896,
          "118": -0.06067596308617206,
          "119": 0.10931427029225294,
          "120": 0.03065452319660311,
          "121": 0.17607127618607765,
          "122": -0.18086637890423574,
          "123": -0.05112047033390416,
          "124": 0.12529290907618015,
          "125": -0.08943704580692992,
          "126": -0.03484097164684156,
          "127": -0.21260282103151407,
          "128": -0.4148622641196863,
          "129": 0.12608719033059124,
          "130": 0.00929910115661096,
          "131": 0.12572629053582737,
          "132": 0.03564506266869715,
          "133": 0.06040593625388443,
          "134": 0.24293777649636117,
          "135": -0.20910838074690546,
          "136": 0.09762250902366648,
          "137": -0.08029524474963308,
          "138": 0.034836200590474556,
          "139": -0.12842085865349423,
          "140": 0.1750859169638445,
          "141": 0.13609541926372645,
          "142": -0.09306474842284303,
          "143": 0.06082476978486447,
          "144": -0.20296449535449543,
          "145": 0.10203116408977135,
          "146": -0.011438551612189363,
          "147": 0.06033974150892443,
          "148": 0.21496889125645569,
          "149": -0.04936980384803072,
          "150": 0.06897476037053965,
          "151": -0.12696407879405613,
          "152": 0.08833679588188066,
          "153": -0.05140556296237493,
          "154": 0.1721871992085903,
          "155": -0.0986849405174394,
          "156": -0.03886017825282312,
          "157": 0.03701305564066913,
          "158": -0.08480416490509993,
          "159": -0.0011370322956188307,
          "160": -0.0948204067137529,
          "161": -0.11478749527082831,
          "162": -0.004864751233757494,
          "163": 0.18836753328771583,
          "164": -0.11637278127469203,
          "165": 0.10485311192073284,
          "166": 0.07601027760034286,
          "167": -0.08093908868045105,
          "168": -0.016359265110021302,
          "169": 0.11156306222893003,
          "170": -0.134537765001149,
          "171": 0.13508042951429364,
          "172": 0.0398243923524141,
          "173": 0.09762855196360631,
          "174": 0.2196441286983224,
          "175": 0.12196844880451431,
          "176": -0.02441167119172869,
          "177": -0.06915347845583086,
          "178": -0.05336624194339007,
          "179": -0.1616704539272711,
          "180": 0.04232489128833435,
          "181": -0.17874845267968212,
          "182": 0.12068024710868203,
          "183": 0.10855981195737238,
          "184": -0.3778012382034501,
          "185": 0.11083660569911005,
          "186": 0.1055816639062581,
          "187": -0.19684150455307178,
          "188": -0.06844954838161835,
          "189": -0.03328381451207875,
          "190": 0.29715678736583656,
          "191": -0.3559471716752884
        }
      },
      "2": {
        "bias": -0.06465659024182173,
        "weights": {
          "0": -0.43136088630068664,
          "1": -0.09398380578547373,
          "2": 0.15495741279628816,
          "3": 0.1740465535597265,
          "4": -0.06265633086313853,
          "5": -0.03086726423921093,
          "6": -0.13580685061502276,
          "7": -0.11258051871430248,
          "8": 0.03892437911281322,
          "9": -0.07622175558777093,
          "10": 0.12832450829675116,
          "11": 0.18814064452068746,
          "12": -0.136896346188448,
          "13": 0.018071934983450885,
          "14": -0.30981847892767567,
          "15": -0.09892235689091859,
          "16": -0.16265316198496613,
          "17": 0.05151881798798789,
          "18": 0.1541471910643952,
          "19": 0.01698000468589032,
          "20": -0.13151516869857263,
          "21": 0.0014188641543191687,
          "22": -0.06196286389442497,
          "23": 0.0673955774388702,
          "24": 0.06655251274308502,
          "25": -0.08100079202773154,
          "26": 0.06872897807394412,
          "27": 0.16673204837157773,
          "28": -0.024190763772047135,
          "29": 0.21359971469136216,
          "30": 0.12061561690681846,
          "31": 0.08286639809729753,
          "32": 0.058429295755974955,
          "33": -0.12353930801997745,
          "34": 0.0890937179802864,
          "35": -0.06489650307114082,
          "36": -0.12150380429620233,
          "37": -0.10534138626823297,
          "38": -0.03334019013640335,
          "39": 0.13129320538066136,
          "40": 0.06990257391211906,
          "41": -0.06115598728955289,
          "42": 0.1795677752521981,
          "43": 0.21184821224171652,
          "44": -0.2115233141097353,
          "45": 0.037140429352213906,
          "46": -0.14910315307565847,
          "47": 0.15772192884526748,
          "48": -0.07143048996265476,
          "49": 0.18919313790739775,
          "50": -0.2304344827771196,
          "51": 0.16737293570439665,
          "52": 0.16347800369900628,
          "53": -0.022713670632888358,
          "54": -0.23989146035625586,
          "55": -0.1298023882005695,
          "56": 0.027037212917370667,
          "57": 0.0024276242256191355,
          "58": 0.07481865391793328,
          "59": 0.08349716728340488,
          "60": 0.08721881826475882,
          "61": 0.0357263555533613,
          "62": -0.16161930276627698,
          "63": -0.01312112718886239,
          "64": 0.08148973128367017,
          "65": -0.03395800717591461,
          "66": -0.08707191491791151,
          "67": -0.08402555597649922,
          "68": -0.13772794835745594,
          "69": -0.10372857968191918,
          "70": 0.033713383746453184,
          "71": 0.1312671319808653,
          "72": -0.01869245261010429,
          "73": -0.25542589211161,
          "74": 0.19924369636217487,
          "75": -0.18405347495542107,
          "76": 0.10312970680260886,
          "77": 0.07827168324755242,
          "78": -0.11921885728818675,
          "79": -0.07868908905280776,
          "80": 0.11594527767455894,
          "81": 0.1443236170503526,
          "82": 0.07496192059514435,
          "83": 0.16665123284612818,
          "84": 0.09951789200340949,
          "85": -0.06899515499947827,
          "86": -0.12073837827070158,
          "87": -0.14410969150640154,
          "88": 0.06864194746161055,
          "89": -0.21722688304709667,
          "90": 0.2859495951035651,
          "91": -0.0013990229621498001,
          "92": -0.011332013639370597,
          "93": 0.12757453289273074,
          "94": 0.21520754328021563,
          "95": -0.15833674922854168,
          "96": -0.07156601347667094,
          "97": 0.28608675742758893,
          "98": -0.0022935385080573366,
          "99": 0.1042693977366924,
          "100": -0.06167971616052571,
          "101": 0.222672477223451,
          "102": 0.18424531743716874,
          "103": 0.06219648840692035,
          "104": 0.07445544462100273,
          "105": -0.041306561257282985,
          "106": 0.1331743351674083,
          "107": 0.1631883018170654,
          "108": -0.07211286203750537,
          "109": 0.32792772715388974,
          "110": 0.2355359926078382,
          "111": 0.17064609155661806,
          "112": -0.1643948912878455,
          "113": -0.06808595919072208,
          "114": 0.09009538546731899,
          "115": 0.22255964418090543,
          "116": -0.1602389165050589,
          "117": -0.08771341184962174,
          "118": -0.003077462418828833,
          "119": -0.1960151458181327,
          "120": 0.1805512943591415,
          "121": -0.08925999552004651,
          "122": 0.1468041657258239,
          "123": -0.1531396014265943,
          "124": 0.07670960444882849,
          "125": 0.009269892999637215,
          "126": -0.22409979434807775,
          "127": -0.11009218411771268,
          "128": -0.2529035270730355,
          "129": 0.03620015977852428,
          "130": -0.230396933781596,
          "131": -0.02144649637596199,
          "132": 0.10892728495630584,
          "133": 0.02751907285409344,
          "134": 0.09095527241760262,
          "135": -0.03524678095176481,
          "136": -0.02085209727051304,
          "137": 0.341717809492332,
          "138": 0.06442900570315147,
          "139": -0.13315227418601744,
          "140": -0.19324136903816042,
          "141": 0.06808915977214898,
          "142": 0.17447368150119907,
          "143": 0.018001653042469763,
          "144": 0.10211103824817487,
          "145": -0.14731247261864944,
          "146": -0.17524662786537676,
          "147": 0.10021178272741613,
          "148": -0.0552525743866562,
          "149": -0.1689352811338265,
          "150": 0.17540806042875728,
          "151": -0.16956701600038743,
          "152": 0.044471688453724775,
          "153": -0.07440017745743019,
          "154": 0.04347435796512228,
          "155": -0.06801648235185373,
          "156": 0.0380751196192155,
          "157": -0.12266816647002865,
          "158": -0.18652127223944148,
          "159": -0.017422101569522546,
          "160": -0.21127656564123118,
          "161": 0.006362857800833686,
          "162": 0.08874432411183361,
          "163": -0.04505808743285539,
          "164": 0.11297935537143255,
          "165": 0.06990040478881933,
          "166": 0.12138308891660479,
          "167": 0.0900600023367708,
          "168": -0.25036344765941854,
          "169": -0.00969827680629654,
          "170": 0.113373046098561,
          "171": -0.026547204929659264,
          "172": -0.19100456740631863,
          "173": 0.046759623358586966,
          "174": 0.0791004503677824,
          "175": -0.27613008514657517,
          "176": 0.23209622832091695,
          "177": 0.22110477484885135,
          "178": 0.13513758059891165,
          "179": -0.016011974739679944,
          "180": -0.11380794066895794,
          "181": -0.10093755599343841,
          "182": 0.17472853392326168,
          "183": 0.2414472090605895,
          "184": 0.07289672308179469,
          "185": 0.233247566649195,
          "186": -0.2047992491773792,
          "187": -0.04198464986870793,
          "188": 0.14734809879043997,
          "189": 0.0898279587414711,
          "190": 0.3464071210470845,
          "191": 0.055726069567870885
        }
      },
      "3": {
        "bias": 0.26157379172633505,
        "weights": {
          "0": -0.2505084154234005,
          "1": -0.28472445678009606,
          "2": 0.0728124466507192,
          "3": 0.132888448813807,
          "4": 0.00982471729027287,
          "5": 0.007362266818022608,
          "6": -0.25522168357226493,
          "7": -0.00708390033698103,
          "8": 0.1493597380119582,
          "9": -0.08074191525413597,
          "10": -0.05648560716194299,
          "11": -0.032652365257305485,
          "12": -0.0749924384106938,
          "13": -0.18827560726914694,
          "14": -0.25311543523879854,
          "15": -0.32887120619331656,
          "16": -0.07100523980599223,
          "17": 0.13129239963027833,
          "18": 0.16964307483720012,
          "19": 0.10525514415468865,
          "20": -0.24532924320280294,
          "21": -0.014290205963089522,
          "22": -0.12302904616061955,
          "23": -0.09423337039620078,
          "24": -0.03307589417667784,
          "25": -0.1628795846794288,
          "26": -0.040847189835381686,
          "27": -0.037099415589995896,
          "28": -0.06643638715662586,
          "29": 0.025903395161824844,
          "30": -0.17946409394407437,
          "31": 0.1322699325494837,
          "32": 0.12539481391310917,
          "33": 0.025719276647128843,
          "34": 0.06819118311345516,
          "35": 0.08849453697270362,
          "36": 0.030490799911672143,
          "37": -0.038940241218154946,
          "38": 0.08714565885746035,
          "39": 0.07741995088498956,
          "40": -0.08045142038790605,
          "41": 0.08911205545681336,
          "42": -0.08911803481596654,
          "43": 0.01624476128159562,
          "44": 0.09102378533402677,
          "45": 0.037068914391940745,
          "46": -0.05401726557188469,
          "47": 0.10338657403595683,
          "48": -0.058804337211398855,
          "49": -0.035917777870884245,
          "50": -0.24999469776046643,
          "51": -0.13645960427083426,
          "52": -0.2807287389273973,
          "53": -0.20240967625231057,
          "54": -0.06695231624740834,
          "55": 0.1291702149654771,
          "56": 0.05899367350886909,
          "57": 0.014388797925935906,
          "58": -0.018464861398764597,
          "59": -0.11103688240421385,
          "60": 0.1629570348834963,
          "61": 0.05358591189597439,
          "62": -0.013188756176996986,
          "63": 0.11117590503151137,
          "64": -0.21416401995301462,
          "65": 0.03866475235472995,
          "66": -0.07418974878455102,
          "67": 0.08735591628550413,
          "68": -0.08124137816170375,
          "69": -0.18203582649351746,
          "70": -0.12912366150632082,
          "71": -0.0225501231527543,
          "72": 0.19843009971620915,
          "73": 0.060620334841395555,
          "74": 0.02389119089142408,
          "75": -0.1190868842893825,
          "76": 0.01735515786123806,
          "77": -0.1905344878547151,
          "78": 0.1301741084669804,
          "79": -0.22268466980953322,
          "80": 0.07164690285877938,
          "81": 0.11915543046731834,
          "82": -0.17477587820084706,
          "83": 0.08761391220008845,
          "84": -0.137924076114002,
          "85": -0.2586631509217782,
          "86": 0.04919565929767863,
          "87": -0.061241892767525064,
          "88": -0.23479830296961426,
          "89": 0.03856563830595243,
          "90": 0.11480795768798446,
          "91": 0.16541904424773238,
          "92": -0.039076943578050284,
          "93": 0.09426280294316143,
          "94": 0.0634527850458139,
          "95": -0.16351301478069902,
          "96": -0.23379363101270967,
          "97": 0.04397575041329626,
          "98": 0.09890921531105679,
          "99": -0.1117633730530611,
          "100": -0.16305775691924157,
          "101": -0.11356960561870534,
          "102": -0.08897896248186492,
          "103": -0.05978371356231609,
          "104": 0.03250082358697875,
          "105": -0.010068844526894577,
          "106": -0.22206361647483977,
          "107": 0.1640282861301169,
          "108": 0.07952315914963194,
          "109": -0.15995425106429956,
          "110": -0.19853197412775386,
          "111": -0.13034886180676025,
          "112": -0.2681762739279636,
          "113": -0.11475812578326638,
          "114": -0.19296618317328915,
          "115": 0.15414319479441957,
          "116": 0.08285240993127035,
          "117": -0.047321597410435685,
          "118": 0.026872433674161082,
          "119": -0.0030504615428533994,
          "120": 0.11707502572435835,
          "121": -0.056254961489677534,
          "122": -0.0782304544283452,
          "123": 0.15402967268717294,
          "124": -0.18054892979633844,
          "125": 0.07232234659050621,
          "126": -0.3777503073294419,
          "127": -0.3223983713566199,
          "128": -0.46573070953619855,
          "129": 0.01458675775039511,
          "130": -0.031474066990699885,
          "131": 0.15055560191432318,
          "132": -0.14405698651141327,
          "133": -0.1347374564818542,
          "134": -0.10860441053957862,
          "135": -0.44135796798369,
          "136": 0.12267657488242902,
          "137": -0.022376664995038358,
          "138": 0.07127671104353994,
          "139": 0.2087773802414613,
          "140": -0.0557474254769258,
          "141": 0.031578786401450225,
          "142": -0.057406001416288654,
          "143": 0.1276972646135123,
          "144": -0.18285082451169954,
          "145": 0.1352536922385536,
          "146": -0.12042132572276207,
          "147": -0.07570346771858065,
          "148": -0.016106043082631836,
          "149": 0.2229244162245472,
          "150": -0.10112618590436537,
          "151": -0.22362311509383614,
          "152": 0.04456415637283155,
          "153": 0.17801947019419084,
          "154": 0.0836487629267849,
          "155": -0.11963818546689131,
          "156": 0.14710365676522486,
          "157": -0.1576681156824822,
          "158": 0.21099257863455595,
          "159": -0.049733522711411966,
          "160": -0.17019224646545475,
          "161": 0.0314633697746558,
          "162": 0.08355637479775775,
          "163": -0.13809397767059092,
          "164": 0.16111985617474656,
          "165": -0.1273602901041663,
          "166": -0.06365164754090828,
          "167": 0.030553063266624162,
          "168": -0.040773941335299685,
          "169": 0.06190900849587229,
          "170": -0.1350350822607027,
          "171": 0.15223059124038932,
          "172": -0.05814164507771678,
          "173": 0.0981397575484784,
          "174": 0.10714453568375795,
          "175": -0.06924475463639672,
          "176": 0.01655391325530031,
          "177": -0.0075319988559441825,
          "178": -0.05737297979646289,
          "179": -0.17768326821912128,
          "180": 0.017740163083452214,
          "181": -0.12981706302586518,
          "182": 0.1909074868013298,
          "183": -0.08667561305340894,
          "184": -0.33478082648728125,
          "185": -0.06252477678126704,
          "186": -0.07209309277885889,
          "187": -0.10408183260371126,
          "188": -0.11157446507204127,
          "189": -0.1529425227822956,
          "190": 0.2365757691013017,
          "191": -0.21525367395410228
        }
      },
      "4": {
        "bias": -0.057587667138631234,
        "weights": {
          "0": 0.2148176499167426,
          "1": -0.08046181112976233,
          "2": -0.20263139786732853,
          "3": -0.06990103120101988,
          "4": -0.18830377964411377,
          "5": 0.021689982971626633,
          "6": -0.10009373363345545,
          "7": -0.04908775791286727,
          "8": -0.09139228880512193,
          "9": -0.12311395648905925,
          "10": 0.16822838805851847,
          "11": -0.15071204329065763,
          "12": -0.13084905451607431,
          "13": -0.10070907470985939,
          "14": 0.008370149544805168,
          "15": -0.148731460343287,
          "16": -0.04016252110035795,
          "17": -0.029757315925639283,
          "18": 0.02225986651537151,
          "19": -0.1309161226978602,
          "20": -0.051337580988153685,
          "21": -0.1151770839896962,
          "22": -0.10260651550126833,
          "23": -0.21359061243625843,
          "24": -0.032908144355183425,
          "25": 0.13740917673057726,
          "26": -0.10969929854651445,
          "27": -0.029038414013660745,
          "28": -0.22833793340149544,
          "29": -0.2077770897054159,
          "30": -0.13415884724897723,
          "31": -0.03757777307351752,
          "32": 0.04712002069129332,
          "33": -0.0580197706634123,
          "34": -0.19720653585874648,
          "35": 0.05105505326150991,
          "36": -0.10036035394663236,
          "37": 0.10969019062459169,
          "38": 0.13427058976858655,
          "39": -0.11560525571657906,
          "40": 0.09837782939937158,
          "41": -0.17070285419617898,
          "42": 0.0007453648302328332,
          "43": -0.13347435486065962,
          "44": 0.12956302082555057,
          "45": 0.10302461274901523,
          "46": -0.017476524529165084,
          "47": -0.16897908672232745,
          "48": -0.19110138967171544,
          "49": 0.027062111870925137,
          "50": 0.0752305269206625,
          "51": -0.005603471193604606,
          "52": -0.18072820694972627,
          "53": 0.031779536635078105,
          "54": -0.149389843106643,
          "55": 0.2322024060778604,
          "56": -0.09238723491772703,
          "57": 0.1271058059525791,
          "58": 0.01268021730672657,
          "59": 0.1008691489544458,
          "60": 0.02129971069932241,
          "61": 0.0750535039849135,
          "62": 0.019638599912044055,
          "63": -0.10070787904576216,
          "64": -0.1264414166464909,
          "65": -0.15253100033987746,
          "66": 0.17047458115126055,
          "67": 0.09416570792694225,
          "68": -0.1092438515005544,
          "69": -0.10833531642435965,
          "70": 0.2155189362283347,
          "71": -0.06969962877736838,
          "72": -0.1274841114831396,
          "73": -0.017997384043261642,
          "74": 0.08386865865548523,
          "75": -0.08458480190337647,
          "76": 0.08723678316936087,
          "77": -0.04798648610164185,
          "78": -0.09500842681769478,
          "79": 0.07488388838395518,
          "80": 0.2066629179103209,
          "81": -0.250613276672116,
          "82": -0.048166698033650805,
          "83": -0.1578995955831621,
          "84": -0.08527492999710146,
          "85": -0.008829729619265678,
          "86": -0.06669742113216795,
          "87": 0.0010073503984965493,
          "88": -0.13020802201236717,
          "89": 0.06261789794618079,
          "90": 0.0421973375529894,
          "91": 0.02748605087604556,
          "92": 0.09002344815893658,
          "93": -0.09574057459326143,
          "94": 0.015449853569770296,
          "95": 0.1352553158535712,
          "96": -0.07777330638677121,
          "97": -0.16088178432888953,
          "98": -0.26403977244828664,
          "99": -0.0560497139031598,
          "100": -0.09290530221696659,
          "101": 0.0047415924845625994,
          "102": -0.2090131323821154,
          "103": -0.06635000269206132,
          "104": 0.146784476267386,
          "105": -0.05561308415598929,
          "106": 0.14634371970358984,
          "107": 0.05405349978788436,
          "108": 0.002327019023372733,
          "109": -0.1145183470514177,
          "110": -0.12217213164518195,
          "111": -0.23639082214865087,
          "112": -0.04633944389753951,
          "113": -0.18871502267854967,
          "114": 0.036865584920590236,
          "115": 0.14513584252134681,
          "116": -0.06274162401439462,
          "117": -0.10033594110323199,
          "118": -0.17529892924676502,
          "119": -0.14652502830089414,
          "120": -0.10598036562656953,
          "121": 0.09285660450029677,
          "122": -0.05433961222439389,
          "123": 0.07628273665778615,
          "124": 0.018743611373052235,
          "125": -0.23101022304866448,
          "126": 0.041562063976183325,
          "127": 0.10043767233277655,
          "128": 0.15144577737596418,
          "129": 0.03646188518861522,
          "130": 0.11947467885950237,
          "131": -0.04899878161842248,
          "132": -0.12571816830187532,
          "133": 0.03597190576386903,
          "134": -0.2688447673741982,
          "135": 0.16835408133948235,
          "136": 0.04595273658559491,
          "137": -0.25793289899528216,
          "138": -0.1538815154094447,
          "139": 0.029318389910503853,
          "140": -0.05402273749059126,
          "141": -0.017373657478146974,
          "142": -0.09091412180907046,
          "143": -0.24119702026164352,
          "144": -0.035667746881768776,
          "145": 0.20680217548194754,
          "146": -0.026910908278705202,
          "147": 0.16031567315887166,
          "148": 0.13965266646628735,
          "149": -0.13955338675365958,
          "150": -0.06124148055749189,
          "151": 0.04404059135155244,
          "152": 0.06692525848001821,
          "153": -0.0667725429118017,
          "154": 0.0842854233228601,
          "155": -0.024671171708031736,
          "156": 0.05919557373522821,
          "157": -0.0787675009648171,
          "158": 0.17448518317217107,
          "159": -0.05561069758790538,
          "160": -0.028196285104705236,
          "161": 0.09977431967207584,
          "162": 0.030676280564556624,
          "163": -0.0928356604329128,
          "164": -0.1641929687294953,
          "165": 0.19294432926227864,
          "166": 0.07489525814810684,
          "167": 0.0654705872422481,
          "168": 0.07817989153873785,
          "169": -0.004289090336440377,
          "170": 0.11664841655086029,
          "171": 0.09643844738217501,
          "172": -0.10285800387242665,
          "173": 0.09636096127334408,
          "174": 0.07623106868745502,
          "175": -0.02480951298470094,
          "176": -0.012867958340976166,
          "177": -0.16365867659914785,
          "178": 0.033880319060084985,
          "179": -0.03774472683577826,
          "180": 0.17432680886644156,
          "181": -0.16578279067842114,
          "182": -0.25169054403440755,
          "183": -0.0077276602238484406,
          "184": -0.0474972914923464,
          "185": -0.12065330871840144,
          "186": -0.12760403681783897,
          "187": 0.0714664862268215,
          "188": 0.11658029815374392,
          "189": 0.22475846874173044,
          "190": -0.19136731642349392,
          "191": 0.3988631269898043
        }
      },
      "5": {
        "bias": -0.0660790247644536,
        "weights": {
          "0": -0.13781721499450972,
          "1": 0.0980986999782621,
          "2": -0.14443782681143688,
          "3": 0.12208325676733758,
          "4": 0.00796484839723627,
          "5": 0.15036484591388638,
          "6": 0.12570052902110185,
          "7": 0.14749465450955043,
          "8": -0.1585938114284187,
          "9": 0.23521457976967006,
          "10": -0.12407239370761546,
          "11": -0.046446315409465054,
          "12": -0.0534045405128566,
          "13": 0.07807778751691045,
          "14": -0.3284858589157952,
          "15": -0.026286512299548467,
          "16": -0.08173358482258455,
          "17": 0.21301933829049163,
          "18": -0.0945442062455547,
          "19": 0.04012454940864547,
          "20": 0.13341668164278936,
          "21": 0.20869515541708303,
          "22": 0.09290845512846194,
          "23": -0.13025001073261488,
          "24": -0.19522821175462252,
          "25": 0.2901994630826881,
          "26": -0.14276671617642794,
          "27": 0.09260386396780274,
          "28": -0.057831611783662175,
          "29": 0.23725092125537375,
          "30": -0.07545721026744955,
          "31": 0.04554872159405329,
          "32": -0.023388473332871605,
          "33": 0.11974564417934805,
          "34": 0.1519860808275624,
          "35": 0.20077735897262344,
          "36": -0.21175369870936467,
          "37": -0.015564288423363472,
          "38": 0.15487788677895525,
          "39": 0.020214065062027588,
          "40": -0.1251982281833028,
          "41": 0.10672413272819685,
          "42": -0.26412634235293075,
          "43": 0.02481934111943455,
          "44": 0.1557514635389461,
          "45": 0.18512496433320072,
          "46": -0.06720289787487463,
          "47": -0.21531118653160444,
          "48": -0.20020693432819056,
          "49": 0.20074095860681576,
          "50": -0.07570362598964031,
          "51": 0.1156342614051839,
          "52": -0.09024138106503926,
          "53": -0.09997386795938709,
          "54": -0.09059993204268432,
          "55": -0.10432948269588359,
          "56": -0.1483225982299902,
          "57": 0.09004123940746232,
          "58": -0.10680022535708757,
          "59": 0.17305840627904054,
          "60": 0.08633811656521406,
          "61": -0.06916543906868365,
          "62": 0.2523038195605964,
          "63": 0.13877989697837553,
          "64": 0.07568502138343085,
          "65": 0.12550299460981548,
          "66": 0.08501876375517155,
          "67": -0.07720384743948079,
          "68": -0.05112229018533071,
          "69": -0.10346516109828804,
          "70": 0.040085456122369426,
          "71": -0.0032639162904907885,
          "72": -0.1368788627805544,
          "73": -0.1283448080499262,
          "74": 0.17426405585548654,
          "75": 0.014632272473878069,
          "76": 0.08055842936791821,
          "77": 0.16893495323480248,
          "78": 0.19726584962747234,
          "79": -0.1731447010498004,
          "80": -0.06818625871778987,
          "81": -0.021107288851736645,
          "82": -0.03180954830535891,
          "83": 0.24630423580387115,
          "84": 0.2397744850509106,
          "85": 0.0187026368607732,
          "86": -0.03967243637863529,
          "87": 0.17027729117760546,
          "88": 0.07849652559146458,
          "89": 0.03685681789989687,
          "90": 0.10436387420610417,
          "91": -0.006617058414132264,
          "92": 0.08868284679967937,
          "93": 0.2714925312888818,
          "94": -0.2744215853954982,
          "95": 0.34750405515765315,
          "96": -0.07029291291192065,
          "97": -0.007075352807506254,
          "98": 0.10565199162791351,
          "99": 0.20621292237081487,
          "100": -0.2962122327812958,
          "101": 0.2913237837505987,
          "102": 0.12974233719046582,
          "103": 0.07604342263103499,
          "104": -0.06816350512124196,
          "105": -0.1528364883458004,
          "106": 0.029382497800484172,
          "107": 0.0583875829253967,
          "108": 0.11132592205226254,
          "109": 0.179574041210249,
          "110": 0.032561786432361114,
          "111": 0.1626147294977013,
          "112": -0.212107913095388,
          "113": -0.2726966750011032,
          "114": -0.20714420925488122,
          "115": -0.1053394823410656,
          "116": 0.06706118768533473,
          "117": 0.08520993171793514,
          "118": 0.13513075444989164,
          "119": 0.08247953901732884,
          "120": 0.4100751635233798,
          "121": -0.12232464358767234,
          "122": 0.2818786826529699,
          "123": -0.22940407647186994,
          "124": -0.14266523244913357,
          "125": 0.058118107725343864,
          "126": -0.2054840246172596,
          "127": -0.26627184521293273,
          "128": -0.2227770322875127,
          "129": 0.062256589687517315,
          "130": -0.11015229526146662,
          "131": 0.08085979421619131,
          "132": 0.029434189444103954,
          "133": 0.08152090061237435,
          "134": -0.03952408819064385,
          "135": -0.08106910731401012,
          "136": 0.005701209876848242,
          "137": 0.0628862196045583,
          "138": -0.007944565881918775,
          "139": 0.18548797058706304,
          "140": 0.07515291029993425,
          "141": 0.14892856495131546,
          "142": 0.2637112660983467,
          "143": -0.11460421005265113,
          "144": 0.07419575698009373,
          "145": 0.16314633615332377,
          "146": -0.12264782838375995,
          "147": -0.19489429834062277,
          "148": 0.14262697135853183,
          "149": -0.15039623821548362,
          "150": -0.12851117046575158,
          "151": -0.012739730729709197,
          "152": -0.17342853906171343,
          "153": 0.0739889658964859,
          "154": -0.21777088152516175,
          "155": 0.10551942253452457,
          "156": 0.19312422003494528,
          "157": 0.0024621007991459404,
          "158": 0.20616648826373116,
          "159": 0.11644871129040751,
          "160": -0.1935212446818167,
          "161": 0.18855714117709993,
          "162": 0.031014416478621434,
          "163": 0.15610709058776367,
          "164": 0.06996126584781936,
          "165": 0.11279257463935212,
          "166": 0.03737186485810657,
          "167": -0.14818124806416685,
          "168": 0.044472309297534963,
          "169": 0.12752519393089182,
          "170": 0.027363486297349394,
          "171": -0.08257958654331869,
          "172": -0.004789073238190957,
          "173": 0.05351086141288873,
          "174": 0.08211968346172151,
          "175": -0.17601470754078782,
          "176": 0.15034731693039205,
          "177": 0.07055852354564185,
          "178": -0.08487960139666986,
          "179": 0.12506602114577034,
          "180": 0.14476665669775993,
          "181": 0.15278500154418545,
          "182": -0.02275096979770811,
          "183": 0.2597101855360813,
          "184": -0.3546185681500008,
          "185": 0.38311942489120043,
          "186": 0.03639559671794731,
          "187": -0.027523092279873925,
          "188": -0.15802605459502989,
          "189": 0.02737501656282163,
          "190": 0.41866676309189405,
          "191": -0.05638279618594199
        }
      },
      "6": {
        "bias": 0.22338228483012176,
        "weights": {
          "0": 0.17897116403977567,
          "1": 0.13740651681018054,
          "2": 0.10074934534065566,
          "3": -0.12667771852313595,
          "4": -0.10992863682138022,
          "5": 0.05005504551075394,
          "6": -0.03271516401337863,
          "7": -0.10963686072499455,
          "8": -0.17545054254700906,
          "9": 0.09354346508075313,
          "10": -0.2271781829736232,
          "11": 0.058475257196564066,
          "12": -0.20899924725593833,
          "13": -0.21846971646251556,
          "14": -0.21520021978185355,
          "15": 0.07926117675230734,
          "16": -0.061553290425440936,
          "17": -0.012907759173513748,
          "18": 0.017919897247467596,
          "19": -0.11187234279071535,
          "20": -0.1768635553587072,
          "21": -0.18507257604539792,
          "22": -0.070437335628526,
          "23": -0.04575624356508239,
          "24": -0.013442649628592889,
          "25": 0.110760544460745,
          "26": -0.22511532495791836,
          "27": -0.11183504751204655,
          "28": -0.24356391186795934,
          "29": 0.0758500975354038,
          "30": 0.05583660167974156,
          "31": -0.017096901101891535,
          "32": -0.18729031547984284,
          "33": -0.05709128854936402,
          "34": -0.017774232849658764,
          "35": 0.04988328414361998,
          "36": -0.019597059504049382,
          "37": 0.09163990094747806,
          "38": -0.04581756084478703,
          "39": -0.06136554337018666,
          "40": 0.057103911171810066,
          "41": -0.021199676875899947,
          "42": -0.059830040456789316,
          "43": -0.16883330424541548,
          "44": 0.15223201431376074,
          "45": 0.07176377722472957,
          "46": -0.015265622075364445,
          "47": 0.051110619577505054,
          "48": -0.09637926264791977,
          "49": 0.036005847705073,
          "50": 0.06713072643426601,
          "51": -0.025784395700858588,
          "52": 0.05599861718000974,
          "53": 0.08682849506048089,
          "54": 0.25318572506747605,
          "55": 0.16711946646626613,
          "56": 0.0817480049932836,
          "57": 0.25735502280327993,
          "58": -0.09104593955296218,
          "59": -0.020049819926573176,
          "60": 0.08184193186597885,
          "61": -0.0510171335518623,
          "62": 0.19447251683276412,
          "63": 0.1475086398300263,
          "64": -0.07010744187702783,
          "65": 0.12911166046983674,
          "66": -0.1628173287510093,
          "67": -0.17748593109384178,
          "68": -0.1907228951003882,
          "69": -0.02331815255390218,
          "70": -0.08197955030453295,
          "71": 0.08351195705704442,
          "72": -0.0232222072526751,
          "73": 0.07909334430445651,
          "74": 0.13252498510422214,
          "75": 0.03841423601934933,
          "76": -0.15257567209314943,
          "77": -0.0711090393711652,
          "78": -0.1265832650789109,
          "79": 0.18274428123810812,
          "80": 0.15421243042029475,
          "81": 0.047625380915104175,
          "82": -0.047502103102296626,
          "83": 0.08677177958030236,
          "84": 0.0028008204497897613,
          "85": -0.221637813191736,
          "86": -0.005315012385255916,
          "87": 0.030145790583819835,
          "88": -0.026366071134242667,
          "89": 0.003687841396127504,
          "90": -0.10139836685027591,
          "91": 0.04177274123091586,
          "92": -0.0284548012167995,
          "93": 0.11342906872904472,
          "94": -0.009208464243100272,
          "95": 0.03062789056567403,
          "96": -0.28761422354308613,
          "97": -0.28621111765149887,
          "98": -0.2726336155908523,
          "99": -0.08238768823426144,
          "100": 0.19852301867249228,
          "101": 0.02846676653303729,
          "102": -0.13065512583589775,
          "103": -0.002412733362642467,
          "104": 0.06394268183862342,
          "105": 0.19530301806601416,
          "106": -0.09661968872874,
          "107": -0.12942860781365972,
          "108": -0.2932554479734811,
          "109": -0.15505783750783134,
          "110": -0.23604424679371575,
          "111": -0.19809149116242794,
          "112": -0.113734858443547,
          "113": 0.08662518687907393,
          "114": -0.017835610167078342,
          "115": -0.07736038463193039,
          "116": 0.04982198215539352,
          "117": -0.07395888626365016,
          "118": -0.13159894989999982,
          "119": 0.14992603216055989,
          "120": -0.10530510594409558,
          "121": 0.16950107236700737,
          "122": -0.028180163305073145,
          "123": -0.11906790323075016,
          "124": -0.3199692437704241,
          "125": -0.055802577845044714,
          "126": 0.05633157980627018,
          "127": -0.18194425709853013,
          "128": -0.033839951912021424,
          "129": -0.15704489372550237,
          "130": -0.07217488158330974,
          "131": 0.03829704899574207,
          "132": 0.08951018391368856,
          "133": 0.15743065064982228,
          "134": -0.11732002296243285,
          "135": -0.1949148253455828,
          "136": -0.16972898834711744,
          "137": -0.18779208792964586,
          "138": 0.20747310558654294,
          "139": -0.10812909737209984,
          "140": 0.023824789015402918,
          "141": 0.018335413985687738,
          "142": -0.16946324333600254,
          "143": -0.01045468809061059,
          "144": 0.15744401439506472,
          "145": 0.18071775479465532,
          "146": 0.15245751805080937,
          "147": -0.06777891356630421,
          "148": -0.0051659325502260035,
          "149": 0.21640498151401596,
          "150": 0.056160222713915894,
          "151": 0.19458599707091595,
          "152": 0.04087405575639021,
          "153": 0.009391103724781672,
          "154": 0.19690537529633273,
          "155": -0.005626086426167742,
          "156": 0.02043212038311787,
          "157": 0.08214440276953205,
          "158": -0.08325665445244583,
          "159": 0.11241926076299778,
          "160": 0.06371792886945964,
          "161": -0.11990522573222377,
          "162": -0.05662105542083588,
          "163": 0.07275307412767545,
          "164": -0.07365387616137475,
          "165": -0.05954019561003078,
          "166": 0.08009212648342756,
          "167": 0.03762583100804465,
          "168": -0.05223226916647527,
          "169": 0.17705820794739385,
          "170": 0.17494875515233202,
          "171": 0.037306129793619414,
          "172": 0.02273492776727179,
          "173": -0.15193980096131315,
          "174": 0.20252207722552337,
          "175": -0.01825020169477291,
          "176": -0.17875039718462457,
          "177": -0.012223314714519682,
          "178": 0.21681680951767143,
          "179": -0.07579519418878751,
          "180": -0.1112197770136211,
          "181": 0.08909729970412314,
          "182": -0.12399649546510207,
          "183": -0.22781609800852382,
          "184": -0.35459623563256953,
          "185": 0.028400667279516945,
          "186": 0.13154302511085572,
          "187": 0.13741570963705538,
          "188": -0.12278450201653027,
          "189": 0.06636771692677527,
          "190": 0.06546589364182463,
          "191": -0.004155185202127124
        }
      },
      "7": {
        "bias": 0.10359100098621962,
        "weights": {
          "0": -0.3125310945667252,
          "1": -0.21587562319802273,
          "2": -0.24594509442354942,
          "3": -0.3636233444064434,
          "4": 0.10761779624894137,
          "5": -0.23421992624651966,
          "6": 0.002560481908193328,
          "7": -0.036294933112597794,
          "8": -0.170279750391475,
          "9": -0.06066222390896014,
          "10": 0.11357993247082658,
          "11": 0.052359785358158745,
          "12": -0.1533847952824589,
          "13": -0.06849836942655808,
          "14": -0.24783701853971823,
          "15": -0.0356211922630653,
          "16": -0.38897707048469704,
          "17": -0.3049463992536169,
          "18": -0.27613719599793407,
          "19": -0.3062044173481654,
          "20": -0.01867958777539109,
          "21": -0.10560809957744749,
          "22": 0.05251938448167928,
          "23": 0.02631967181806101,
          "24": 0.025831234376690448,
          "25": -0.02660380434046684,
          "26": -0.11637413553414375,
          "27": -0.06919140304616402,
          "28": -0.4460279886651232,
          "29": 0.08117713319067597,
          "30": -0.04653469821297033,
          "31": 0.15708374705296071,
          "32": 0.14514274097376373,
          "33": -0.08801805802477776,
          "34": 0.04402130296977509,
          "35": -0.0973430954690148,
          "36": -0.11854367266393724,
          "37": 0.04518596980366446,
          "38": -0.1860954132584962,
          "39": -0.1260336422721926,
          "40": 0.048419801195923644,
          "41": 0.025411985267552485,
          "42": -0.23309890319012996,
          "43": -0.01008775120964774,
          "44": 0.006478237061855222,
          "45": -0.1082561285360333,
          "46": -0.08352113391354293,
          "47": 0.11552236745585977,
          "48": 0.04878949875410966,
          "49": 0.11915608511020541,
          "50": -0.14780700510835698,
          "51": 0.11425517645438463,
          "52": 0.15047953026795394,
          "53": 0.2394842763321335,
          "54": -0.1726715153038434,
          "55": 0.24505190901682625,
          "56": -0.07755402210654642,
          "57": 0.10226292289264975,
          "58": -0.14569877303623405,
          "59": 0.01715616921236914,
          "60": -0.18489149637546684,
          "61": 0.08039868884128756,
          "62": -0.19814247925358383,
          "63": 0.14612530389992814,
          "64": -0.17199891214317417,
          "65": -0.0466841463395329,
          "66": 0.06990252924164632,
          "67": -0.05930832225877031,
          "68": 0.009772222541415847,
          "69": -0.10976447337544849,
          "70": 0.1744780219858784,
          "71": -0.05971669160267228,
          "72": 0.028207633745982123,
          "73": 0.011236613936114396,
          "74": -0.058177020303708686,
          "75": -0.1968229584675055,
          "76": -0.004658410843306789,
          "77": 0.0972718571610072,
          "78": -0.11158586240248834,
          "79": -0.09306920358144191,
          "80": 0.017853907027428645,
          "81": -0.23943889401344692,
          "82": -0.05465379510445006,
          "83": 0.016823215724185787,
          "84": 0.22434771267375847,
          "85": -0.0007308925734926556,
          "86": 0.010693738048022062,
          "87": -0.22540342521487255,
          "88": 0.13225500766214185,
          "89": -0.1677725111869539,
          "90": 0.12198065167007874,
          "91": 0.17617313781236046,
          "92": -0.21651986923844008,
          "93": -0.19322051621309053,
          "94": 0.11150951983077148,
          "95": -0.14964214362293246,
          "96": -0.23867734002577504,
          "97": -0.28174790897169666,
          "98": -0.436920412135809,
          "99": -0.35316751030761817,
          "100": 0.04014431419065661,
          "101": 0.04938633508843965,
          "102": -0.08641409267310095,
          "103": -0.02633073130566261,
          "104": 0.010127091243612267,
          "105": -0.030763186730287776,
          "106": -0.19755271098860966,
          "107": -0.20008668619715456,
          "108": -0.22178612001845824,
          "109": -0.04263048642441015,
          "110": -0.1873039976874263,
          "111": -0.017257369777931582,
          "112": -0.3156321256235198,
          "113": -0.16092133095873118,
          "114": -0.30651647411500355,
          "115": -0.11059689636027592,
          "116": -0.013829299235394069,
          "117": -0.15137218610941885,
          "118": -0.019923174004983606,
          "119": -0.10848115607466124,
          "120": 0.057950574521688475,
          "121": 0.0644556851378378,
          "122": -0.10922931754195088,
          "123": 0.15762009617375397,
          "124": -0.12648652830378773,
          "125": -0.14952773949610673,
          "126": -0.40711296512599204,
          "127": -0.018461564393941497,
          "128": 0.5922457437639329,
          "129": -0.14840601005152199,
          "130": 0.1287796248795026,
          "131": -0.02358346840179724,
          "132": 0.12541870332506627,
          "133": 0.14999603748226134,
          "134": -0.061748483055970395,
          "135": 0.6059100325790289,
          "136": -0.3463463215718935,
          "137": -0.36134228255287065,
          "138": -0.04333421524150811,
          "139": 0.035277696314895406,
          "140": -0.2136672751966376,
          "141": -0.03792795263741162,
          "142": -0.2757893231415461,
          "143": -0.23059260958060096,
          "144": 0.151948332215823,
          "145": 0.1189972044273164,
          "146": 0.0885669353886089,
          "147": 0.08705349642419642,
          "148": 0.13956937802134048,
          "149": 0.097888369282524,
          "150": 0.0864823964569843,
          "151": -0.043822797641172924,
          "152": 0.17230076613003972,
          "153": 0.09115430620643235,
          "154": -0.10743463572689878,
          "155": 0.07507921475657986,
          "156": 0.025727741522186875,
          "157": -0.13339907097185888,
          "158": -0.12664487458389265,
          "159": 0.18150886588370935,
          "160": 0.06263961251997428,
          "161": 0.19184403651877158,
          "162": 0.20126877285617997,
          "163": -0.04858206053371425,
          "164": 0.06299593141911969,
          "165": 0.0770719324874315,
          "166": -0.03141434489273953,
          "167": 0.007311651511261851,
          "168": 0.10663833265320304,
          "169": -0.18725317329018973,
          "170": 0.0346966080580126,
          "171": 0.09867214977609784,
          "172": 0.14306802030906396,
          "173": -0.03802709530720612,
          "174": 0.11015348673352586,
          "175": 0.048469656477948674,
          "176": -0.10575284778869122,
          "177": -0.16712070345213156,
          "178": 0.0663739621322778,
          "179": 0.11122390463829085,
          "180": -0.1061963826405723,
          "181": 0.022038124313226225,
          "182": -0.3742442444130802,
          "183": -0.2957101743885864,
          "184": 0.5445962303916433,
          "185": -0.30614492475486926,
          "186": 0.2852291386403469,
          "187": 0.17593085101014858,
          "188": 0.0355130879687094,
          "189": 0.29675726803682434,
          "190": -0.0791476746705087,
          "191": 0.6639109124864829
        }
      },
      "8": {
        "bias": 0.19807009568774392,
        "weights": {
          "0": 0.23595486844777427,
          "1": 0.25335441924481605,
          "2": -0.06390160080104511,
          "3": -0.15205018094760478,
          "4": 0.042316812309428416,
          "5": -0.017405807251033547,
          "6": 0.12522791926252283,
          "7": 0.06835829908943997,
          "8": -0.11020490393137031,
          "9": 0.16686436939133797,
          "10": -0.12357286608855672,
          "11": -0.043576992855608995,
          "12": -0.20522845092110845,
          "13": -0.07272635263283936,
          "14": -0.242687049452153,
          "15": 0.029373877171583254,
          "16": -0.16986009993742499,
          "17": 0.0757586414023348,
          "18": 0.1829478942519303,
          "19": 0.08431873630503822,
          "20": -0.06088178053629907,
          "21": -0.17704575461316188,
          "22": -0.18223642780681484,
          "23": -0.18551238008126483,
          "24": -0.26682306639105896,
          "25": -0.303425854123465,
          "26": -0.26605876606738743,
          "27": -0.00788771057912501,
          "28": -0.18263517396071677,
          "29": -0.24487467353594458,
          "30": -0.22174514498646505,
          "31": -0.177427444961744,
          "32": -0.014036809858895995,
          "33": 0.2274281422635411,
          "34": -0.1870052589879245,
          "35": 0.16550475707727116,
          "36": 0.038137195027681536,
          "37": -0.12406260923131147,
          "38": -0.08598450621004387,
          "39": -0.1644542913188628,
          "40": -0.162726324155709,
          "41": 0.011023407313003573,
          "42": -0.10895067929254683,
          "43": 0.1068085057649385,
          "44": -0.12413350082222961,
          "45": 0.04534317693419973,
          "46": -0.046543284678902785,
          "47": -0.12700207436098646,
          "48": -0.013073790830166902,
          "49": 0.18743263172269856,
          "50": 0.08288697861379168,
          "51": -0.1496488763326458,
          "52": -0.0838737566471243,
          "53": -0.06677781023775509,
          "54": 0.2874766053495505,
          "55": 0.1293574316099052,
          "56": -0.013851813198413701,
          "57": 0.08763363710716987,
          "58": -0.09767083388365123,
          "59": -0.0734057400362149,
          "60": -0.14574982084959479,
          "61": -0.06873256249651984,
          "62": -0.01615869708956952,
          "63": -0.028459554995752152,
          "64": 0.0544998432792369,
          "65": 0.1566610131023296,
          "66": 0.15902563204905415,
          "67": 0.09452161741613034,
          "68": -0.14359628179385586,
          "69": -0.039596057595969646,
          "70": 0.13451777929442535,
          "71": 0.23464026577653097,
          "72": -0.14133328313854396,
          "73": 0.2042070887588682,
          "74": 0.12821772114396515,
          "75": -0.13304125416346935,
          "76": 0.008353725629361637,
          "77": -0.012839141334822864,
          "78": -0.15771580727748813,
          "79": -0.06041964800402439,
          "80": -0.03160818245590111,
          "81": -0.13842860714247066,
          "82": -0.07069644674143671,
          "83": -0.08079837624750566,
          "84": -0.10656798071540913,
          "85": -0.2049294306023878,
          "86": -0.0800608370495758,
          "87": 0.020777144981592357,
          "88": -0.1232597083835198,
          "89": -0.1353134865620602,
          "90": 0.015163342051248562,
          "91": 0.1642163408812778,
          "92": -0.0236164990666789,
          "93": -0.08422841340759576,
          "94": 0.0823172347466464,
          "95": -0.07958379971299887,
          "96": 0.04627782805856671,
          "97": -0.1853920858086284,
          "98": -0.08098956606082539,
          "99": 0.04946127333572203,
          "100": 0.007711072204993843,
          "101": -0.11991040509629929,
          "102": 0.13719625851395223,
          "103": -0.1242849528985573,
          "104": 0.03466692796390521,
          "105": -0.02198562784951791,
          "106": -0.10810104472415319,
          "107": -0.0975683923587559,
          "108": -0.028399000167596992,
          "109": -0.26381815421931193,
          "110": -0.12675539515940795,
          "111": 0.10378271748385877,
          "112": 0.0312088342275721,
          "113": 0.07831883978214227,
          "114": -0.15968001358564043,
          "115": -0.021536090710209257,
          "116": -0.07199364094714997,
          "117": -0.04031087473451307,
          "118": -0.13466281795494298,
          "119": 0.0063308812997524295,
          "120": 0.09662238687599181,
          "121": 0.004901427624028072,
          "122": -0.2212929120837569,
          "123": -0.1228060852607096,
          "124": -0.14473349622682002,
          "125": -0.08582741436753923,
          "126": 0.17906836919253066,
          "127": -0.008990918382526313,
          "128": -0.2660052906583756,
          "129": 0.03441559338974254,
          "130": -0.1396769792480966,
          "131": -0.15304734666650086,
          "132": -0.16644852752447475,
          "133": -0.08049439540911633,
          "134": 0.2052899422873619,
          "135": -0.06653324168774995,
          "136": -0.02113630565697207,
          "137": -0.0954164483068041,
          "138": 0.22302844585790033,
          "139": -0.07565773839036627,
          "140": -0.09226276115003058,
          "141": 0.03344024508728067,
          "142": 0.02784478816641076,
          "143": -0.044965087370483124,
          "144": -0.12934480852297098,
          "145": 0.19869277521067744,
          "146": 0.04932534116893757,
          "147": 0.11030567160253413,
          "148": 0.09403185674941665,
          "149": -0.014736540352931012,
          "150": 0.1932206149130202,
          "151": -0.11988107608386554,
          "152": -0.022971002528648334,
          "153": -0.08558597749108936,
          "154": 0.25419240130430276,
          "155": -0.04731019701505518,
          "156": -0.09592411001992973,
          "157": -0.1278196253315561,
          "158": 0.04492322570247929,
          "159": 0.150104974812791,
          "160": 0.03919667464886308,
          "161": 0.06778713185497826,
          "162": -0.018295740106065685,
          "163": 0.12983301360307414,
          "164": 0.11856775603261199,
          "165": 0.21207501558736955,
          "166": -0.0482542437777915,
          "167": 0.1607718465300033,
          "168": -0.1592863429231817,
          "169": -0.15415973574805616,
          "170": 0.06459768063541668,
          "171": -0.17692179664157198,
          "172": 0.21964841433106974,
          "173": -0.0022292452071912506,
          "174": -0.136528261973854,
          "175": -0.07601056866017936,
          "176": 0.06129064530741096,
          "177": -0.12163121757602731,
          "178": 0.012031656954164608,
          "179": -0.019254936158118043,
          "180": 0.04329103049719107,
          "181": -0.13518757361317163,
          "182": 0.22584865092171516,
          "183": 0.21173959077650323,
          "184": -0.25479886604467017,
          "185": -0.154881456477614,
          "186": -0.025258886159047155,
          "187": -0.14782103314611214,
          "188": -0.16567194215336767,
          "189": 0.07338227249034285,
          "190": -0.05861542793096554,
          "191": -0.2724514490935357
        }
      },
      "9": {
        "bias": -0.25319709005444035,
        "weights": {
          "0": 0.23533997477974683,
          "1": 0.005956451385543888,
          "2": 0.008743455795152705,
          "3": 0.10009970376987354,
          "4": 0.1658731087391007,
          "5": -0.2049546901757967,
          "6": 0.014606983730347727,
          "7": 0.028703778886809403,
          "8": -0.17519738189232353,
          "9": -0.17611336366357502,
          "10": -0.002897973573557874,
          "11": 0.21280415113842582,
          "12": 0.12710768763566904,
          "13": -0.14847438535061877,
          "14": 0.09426144635426205,
          "15": 0.1488809314817192,
          "16": -0.1330214383093661,
          "17": 0.06537267399159793,
          "18": -0.08750112530671994,
          "19": -0.1479842959315914,
          "20": -0.09840359263343072,
          "21": -0.16097767013184816,
          "22": -0.15175181268481075,
          "23": 0.09736064975338057,
          "24": 0.0889823648777164,
          "25": -0.15333670208112285,
          "26": 0.00804142187475079,
          "27": 0.19204319183753374,
          "28": 0.019719896902699048,
          "29": 0.012053047482698663,
          "30": 0.13791026822036742,
          "31": -0.1432475270280212,
          "32": -0.11593648745896751,
          "33": -0.03304902610552356,
          "34": -0.061404450233394574,
          "35": -0.09583527205049291,
          "36": -0.11734741756120458,
          "37": 0.11996600935260122,
          "38": 0.10411462140514509,
          "39": -0.17868107831555613,
          "40": -0.14474173348367392,
          "41": 0.07035734966839423,
          "42": -0.07083992160978396,
          "43": -0.1036079492732962,
          "44": 0.050992834971270384,
          "45": 0.13956090495795917,
          "46": -0.03607973343602073,
          "47": -0.06425614438325492,
          "48": -0.10434468693541979,
          "49": -0.15963101725864437,
          "50": 0.21954921591432927,
          "51": -0.06033157364296097,
          "52": 0.20349780469205078,
          "53": 0.17340977725301465,
          "54": 0.13206330891322857,
          "55": 0.10800072409256899,
          "56": -0.1365279009077502,
          "57": 0.14109138263256268,
          "58": -0.08192498236086593,
          "59": -0.05630087953510675,
          "60": 0.1538527517326875,
          "61": -0.15330425789921825,
          "62": 0.1773253045237015,
          "63": 0.06113604813155422,
          "64": 0.0358153138113937,
          "65": 0.10257808675108065,
          "66": -0.18510170513980723,
          "67": 0.18606077814287839,
          "68": -0.04930350892263526,
          "69": -0.022064607770411946,
          "70": -0.20296193166570536,
          "71": -0.15035118552907348,
          "72": 0.1661995040904091,
          "73": -0.012786053459994244,
          "74": 0.10019175152442651,
          "75": 0.1502367307051041,
          "76": -0.17480713147082494,
          "77": 0.08300957464911647,
          "78": 0.031284763282201054,
          "79": 0.07042169086894806,
          "80": -0.05457914109515402,
          "81": -0.047148376170881266,
          "82": 0.00018282895575759246,
          "83": 0.02761423850079494,
          "84": -0.19198402395812275,
          "85": 0.14230102318226984,
          "86": 0.07717380871124421,
          "87": 0.06999633110776052,
          "88": 0.1405489070902552,
          "89": 0.14270980066158154,
          "90": -0.0898658210859057,
          "91": 0.14000478666392274,
          "92": 0.0009293393529819753,
          "93": 0.1254154477655929,
          "94": -0.021140138391991983,
          "95": -0.261276097350677,
          "96": -0.11667090351950683,
          "97": -0.03341952006642253,
          "98": -0.06056798080286873,
          "99": -0.19898439981791988,
          "100": -0.03144978323955817,
          "101": -0.177429018403322,
          "102": -0.19023110805993412,
          "103": -0.08611067592138805,
          "104": -0.07858903250029545,
          "105": 0.14950916788006435,
          "106": -0.13943604311843563,
          "107": -0.24253451842663112,
          "108": -0.2773153726322168,
          "109": -0.3503148830843049,
          "110": -0.27926141393117093,
          "111": -0.2766978360554478,
          "112": 0.2348079676755198,
          "113": -0.06856717114978239,
          "114": 0.02546463329206875,
          "115": 0.10859715681564,
          "116": -0.24717711503454745,
          "117": 0.08358622134343734,
          "118": -0.22842229316315302,
          "119": -0.12948301764207995,
          "120": 0.05105498376999812,
          "121": 0.15446858576940797,
          "122": 0.1519355219534246,
          "123": -0.21968901956687636,
          "124": -0.10542920644643254,
          "125": 0.05410945887912824,
          "126": -0.025877619413394032,
          "127": 0.11795367123927232,
          "128": 0.4422451487830786,
          "129": -0.14714292537347776,
          "130": 0.14642518591371467,
          "131": -0.11586090371022142,
          "132": -0.0857383127066392,
          "133": 0.19867804245729573,
          "134": -0.12055872565932045,
          "135": 0.2311382456277011,
          "136": -0.06240005521651447,
          "137": -0.07691454801530029,
          "138": -0.03442293078705236,
          "139": 0.04921331716597331,
          "140": -0.16912350092725784,
          "141": -0.1237985327688856,
          "142": -0.012802473639551335,
          "143": 0.0320010834538426,
          "144": -0.021948780377378223,
          "145": -0.13933813575105894,
          "146": -0.07820572650847434,
          "147": 0.08959687745428427,
          "148": 0.028956704846657896,
          "149": -0.10554189937523256,
          "150": 0.05116499289611862,
          "151": 0.06523631687136519,
          "152": 0.20952645188503613,
          "153": -0.07316920321938253,
          "154": -0.1814029611428008,
          "155": 0.029902473641941818,
          "156": 0.04280498966971508,
          "157": -0.059802180911712174,
          "158": 0.14863504169907008,
          "159": -0.08378895836112366,
          "160": 0.0911295168591919,
          "161": -0.1882112842633374,
          "162": -0.09290720777116838,
          "163": -0.10273909340157888,
          "164": 0.10738976455625576,
          "165": 0.0328000421909554,
          "166": -0.09095196179413097,
          "167": 0.021232746345060928,
          "168": 0.11275969519854864,
          "169": 0.14628663830062608,
          "170": -0.03436338619603336,
          "171": 0.023273306534310024,
          "172": -0.1831541795035375,
          "173": -0.07514604328384555,
          "174": 0.020585888051434114,
          "175": 0.25040621262016505,
          "176": -0.007304350905170329,
          "177": -0.08121711053299827,
          "178": -0.1530336057663657,
          "179": -0.09378412158039527,
          "180": 0.10705518016883103,
          "181": 0.1532636318178543,
          "182": -0.34285152339786656,
          "183": -0.07999181376977685,
          "184": 0.2543990571986006,
          "185": -0.04998669597150138,
          "186": -0.018581915483729658,
          "187": 0.0860290852561503,
          "188": -0.03433116970066744,
          "189": -0.013191795865192974,
          "190": -0.19878591756872818,
          "191": 0.332139277791825
        }
      },
      "10": {
        "bias": -0.24102759166809234,
        "weights": {
          "0": 0.5121672189194234,
          "1": 0.3789654674496526,
          "2": 0.04152736054097355,
          "3": -0.07474467884747368,
          "4": -0.05280866674494341,
          "5": 0.1253507045341491,
          "6": -0.11452116266650379,
          "7": -0.051649878188988356,
          "8": 0.08416045197881859,
          "9": -0.13640886487975384,
          "10": 0.16310495775425415,
          "11": 0.03263309928544072,
          "12": 0.08132974159662267,
          "13": 0.12010846688531839,
          "14": 0.27694039153578753,
          "15": 0.1796138791634745,
          "16": 0.10016988751933854,
          "17": -0.09085754829985015,
          "18": 0.1628828993358545,
          "19": -0.09430389972939662,
          "20": 0.14625673891458105,
          "21": -0.07404024088543341,
          "22": 0.07772808773434221,
          "23": -0.04597128766774086,
          "24": -0.10668237719664785,
          "25": 0.18803629629345384,
          "26": 0.13735220148854138,
          "27": -0.03187126200533322,
          "28": 0.14862444873967123,
          "29": 0.07794505855643534,
          "30": 0.19802335489770667,
          "31": -0.041016085242525153,
          "32": -0.1840928255141766,
          "33": -0.24785799962852278,
          "34": 0.06596777468787418,
          "35": 0.032381686466363656,
          "36": 0.2058803641478871,
          "37": -0.07596021787631677,
          "38": 0.09390550665369274,
          "39": -0.15030452246387677,
          "40": -0.143613878963474,
          "41": -0.08678769261976248,
          "42": 0.1338603259717867,
          "43": 0.09087760867905892,
          "44": -0.05740254614659355,
          "45": 0.08435333173601256,
          "46": -0.1379120581326465,
          "47": 0.08635014344460738,
          "48": 0.0002048480050483083,
          "49": -0.10257206774531838,
          "50": -0.1305629894401591,
          "51": 0.09882144694205584,
          "52": -0.20071972345261363,
          "53": -0.24124281606362571,
          "54": 0.032376617939094146,
          "55": -0.14359869980727327,
          "56": -0.18338024179257656,
          "57": -0.2158254057653634,
          "58": -0.25794131129211734,
          "59": -0.04441685921145611,
          "60": -0.20404610160666187,
          "61": -0.16042374598016426,
          "62": -0.09938127093493251,
          "63": -0.18747617654075133,
          "64": -0.14688838141422797,
          "65": -0.013943741965874189,
          "66": -0.09208070430282746,
          "67": 0.056572913680164295,
          "68": -0.21055661928596092,
          "69": 0.10594395634192226,
          "70": -0.18772232239636533,
          "71": 0.04728595410728947,
          "72": 0.059381042197063354,
          "73": 0.029082720752961262,
          "74": 0.02782415645291648,
          "75": -0.07847983092161677,
          "76": 0.017091319481226747,
          "77": 0.09211745189669925,
          "78": -0.021434134471785226,
          "79": -0.1174294053563288,
          "80": 0.02778901600443131,
          "81": 0.04168919979132092,
          "82": 0.18981505459719,
          "83": -0.17674249412734575,
          "84": 0.05958236448599518,
          "85": 0.10700598929229703,
          "86": -0.08354818880267222,
          "87": -0.019693594422585198,
          "88": -0.20711250028001113,
          "89": -0.13942330809847972,
          "90": -0.16800469553223352,
          "91": -0.21828988350184705,
          "92": -0.0483556307347178,
          "93": -0.2196462491995079,
          "94": -0.12336204409244657,
          "95": -0.10551735008753267,
          "96": 0.3121095710297097,
          "97": 0.13823404775914105,
          "98": 0.2753529567961334,
          "99": -0.10371268471483841,
          "100": 0.01831517295249642,
          "101": -0.05807025385835351,
          "102": 0.16010563958465704,
          "103": 0.06461340923243557,
          "104": 0.09767713360314266,
          "105": -0.0061520028926551505,
          "106": 0.06927043918982621,
          "107": -0.2226149759335507,
          "108": 0.13990253357492236,
          "109": 0.06638095991955259,
          "110": -0.0018306555423944037,
          "111": 0.015107484420937144,
          "112": 0.5722872942080749,
          "113": 0.5037564445336211,
          "114": 0.12305468909315687,
          "115": -0.20322702530988687,
          "116": -0.16286870099606374,
          "117": -0.0825437306519856,
          "118": -0.025757918801432737,
          "119": -0.10841940191219132,
          "120": -0.10457927431623788,
          "121": 0.0027371680021116493,
          "122": -0.1675465865940624,
          "123": 0.15181368027818787,
          "124": 0.26614460674873475,
          "125": -0.18774236406816028,
          "126": 0.4072591710719612,
          "127": 0.21808736079053376,
          "128": 0.03208843901956733,
          "129": 0.07795287329554756,
          "130": 0.08666041137024545,
          "131": 0.1637464760250727,
          "132": -0.05624268774097688,
          "133": 0.04433325992637998,
          "134": -0.09221728176259689,
          "135": 0.16159001951122692,
          "136": 0.08134758893490705,
          "137": 0.009701856611212823,
          "138": 0.026304285704098207,
          "139": 0.06373875783173504,
          "140": 0.1317861325385216,
          "141": 0.001973221493453064,
          "142": -0.034111041461864375,
          "143": 0.024811605183339958,
          "144": -0.17594632190997186,
          "145": -0.0662240537773598,
          "146": -0.04138827759410636,
          "147": 0.0852855413859979,
          "148": 0.04364195238006933,
          "149": -0.005655499762343527,
          "150": -0.11558486315783444,
          "151": 0.16860050321012288,
          "152": 0.20648473306402135,
          "153": 0.18141349654220884,
          "154": -0.08505028499118258,
          "155": 0.12851660495259204,
          "156": -0.15448967083021287,
          "157": 0.08535352421124173,
          "158": -0.09691286186556482,
          "159": 0.23128125342301586,
          "160": 0.09193362022395578,
          "161": 0.0661021571553464,
          "162": 0.11426470313168205,
          "163": 0.16236795647840102,
          "164": 0.08418496313017848,
          "165": -0.029261035453382326,
          "166": -0.07554714324351747,
          "167": 0.2188561036590534,
          "168": 0.11024424330406797,
          "169": -0.17875956657288833,
          "170": -0.18330022253220604,
          "171": -0.13737706807696365,
          "172": 0.10192034412363003,
          "173": 0.15971668160266664,
          "174": -0.08891538180400259,
          "175": 0.1447532224927413,
          "176": 0.19650799678082936,
          "177": 0.02136523553457115,
          "178": -0.07448821061356274,
          "179": 0.08194531811142806,
          "180": -0.002399958845746453,
          "181": -0.15973448251343128,
          "182": -0.23671128259940835,
          "183": -0.13577489971281814,
          "184": 0.05587742906891992,
          "185": 0.10070140111646785,
          "186": -0.035172917541963784,
          "187": -0.08470583238077042,
          "188": -0.1393497288224302,
          "189": 0.1759005265611504,
          "190": -0.22958877452708848,
          "191": -0.25287354695282294
        }
      },
      "11": {
        "bias": 0.1467825320589903,
        "weights": {
          "0": 0.3408622054464814,
          "1": -0.02138223467706988,
          "2": 0.08865366653569062,
          "3": -0.2554690097353267,
          "4": -0.00005010608251582678,
          "5": -0.13382230167164264,
          "6": 0.022604754546022385,
          "7": -0.10254223039030931,
          "8": -0.10447659963391197,
          "9": -0.133701934062846,
          "10": 0.0015088260851363403,
          "11": 0.06619963010587253,
          "12": -0.029786620315769327,
          "13": -0.15530037614827089,
          "14": 0.20895841025560033,
          "15": -0.06733443313122973,
          "16": -0.1656860089738866,
          "17": -0.22856670950850194,
          "18": -0.01986083484503095,
          "19": -0.10784414925064298,
          "20": 0.1476856939217525,
          "21": -0.29039908031276773,
          "22": -0.08124646768835482,
          "23": -0.12457234060114972,
          "24": 0.07042600423674726,
          "25": 0.09368170762544668,
          "26": 0.15657738343561475,
          "27": -0.29962571057456244,
          "28": 0.19605819668225846,
          "29": -0.10283925247336378,
          "30": 0.09930363155897032,
          "31": -0.18534165434921976,
          "32": 0.022721527863918616,
          "33": -0.27497760721300557,
          "34": -0.0025085461476740873,
          "35": -0.07816888586584507,
          "36": -0.008716491788375063,
          "37": -0.21918020273625602,
          "38": 0.024555873866728875,
          "39": -0.040764224195712684,
          "40": -0.1710810182050514,
          "41": -0.11671381870456929,
          "42": 0.08814508240019267,
          "43": -0.18153243009127154,
          "44": -0.14155731382686756,
          "45": -0.027058108022819778,
          "46": 0.16105125259089106,
          "47": 0.04128582077299455,
          "48": 0.18700089438504236,
          "49": 0.09253761308945146,
          "50": 0.1747988520215304,
          "51": 0.11585104643748126,
          "52": -0.18667802420622942,
          "53": 0.082016550553645,
          "54": -0.1511914317625144,
          "55": -0.03584047153851118,
          "56": -0.2191717166243503,
          "57": -0.14223712535088637,
          "58": -0.28585354785657324,
          "59": -0.0022984530575569533,
          "60": -0.07787678093286204,
          "61": -0.18384783866393017,
          "62": -0.10054840523249788,
          "63": -0.08061997909610025,
          "64": 0.019038087239584004,
          "65": -0.17906099177822954,
          "66": 0.021355922582670786,
          "67": 0.05294365877408996,
          "68": 0.13236808934262115,
          "69": 0.10400534051060671,
          "70": 0.011302004719151973,
          "71": -0.19647551759696408,
          "72": 0.04791528988018655,
          "73": 0.04248752096760825,
          "74": -0.013161537752026718,
          "75": -0.18183926724296348,
          "76": -0.17746656912356948,
          "77": -0.0074754466234467805,
          "78": 0.15993952877086828,
          "79": -0.01989602570102473,
          "80": 0.016678281739985156,
          "81": -0.22635597278497294,
          "82": -0.023818426932133943,
          "83": 0.09171860929501359,
          "84": -0.20331484096323132,
          "85": 0.16349982966156448,
          "86": -0.03509591550911337,
          "87": 0.20733573426063492,
          "88": -0.15390823368390918,
          "89": -0.14233247052530323,
          "90": -0.11450119882248555,
          "91": 0.1643544248508084,
          "92": 0.0001650978928030513,
          "93": -0.08758371058547403,
          "94": -0.24670222740383305,
          "95": 0.12544553871131103,
          "96": 0.06342943910767276,
          "97": 0.1382939176728512,
          "98": 0.23858418070532347,
          "99": -0.13822838004636787,
          "100": 0.12357143301372792,
          "101": -0.09237577529543489,
          "102": 0.13297201918747942,
          "103": 0.09647605569104317,
          "104": 0.1759023821878645,
          "105": 0.094640468249101,
          "106": -0.14948474876568532,
          "107": -0.122178246742611,
          "108": 0.10733442213950596,
          "109": -0.15392460265152608,
          "110": -0.07444473545574432,
          "111": -0.1705122865078985,
          "112": 0.3210672580562259,
          "113": 0.28976096632874065,
          "114": 0.2180470602106469,
          "115": 0.07004731379112529,
          "116": 0.06457237667673144,
          "117": 0.07353187455944482,
          "118": -0.11248523839761887,
          "119": -0.23476336530950395,
          "120": 0.07052164118610865,
          "121": -0.10198654376992228,
          "122": -0.052723322879949956,
          "123": -0.046615303795730555,
          "124": 0.08518710693122716,
          "125": 0.16527447812648666,
          "126": 0.46225352833569344,
          "127": 0.40057220266705185,
          "128": 0.22378285729717398,
          "129": -0.31061078488000654,
          "130": -0.01910466344273173,
          "131": -0.07315975450848398,
          "132": 0.0586626366099408,
          "133": -0.018611821365487717,
          "134": 0.06374016797024638,
          "135": 0.32374263955523047,
          "136": -0.016947169683884298,
          "137": -0.054656958095054976,
          "138": -0.001371042800347743,
          "139": 0.11664459331158904,
          "140": -0.03710737244446577,
          "141": 0.09231790785952917,
          "142": -0.33652575215110353,
          "143": -0.37385715789336527,
          "144": 0.20419214919674525,
          "145": -0.09748181874013806,
          "146": -0.09098925227240963,
          "147": 0.020957484474213254,
          "148": -0.004427720831119545,
          "149": -0.1530090129413254,
          "150": 0.10480686727711033,
          "151": 0.12162175567366064,
          "152": 0.1881478978273487,
          "153": 0.10956119792166333,
          "154": 0.20292916321597929,
          "155": -0.021764176203417668,
          "156": -0.05806497455848714,
          "157": -0.16917873121871502,
          "158": 0.15260357424411128,
          "159": 0.2269451225996371,
          "160": 0.1554926025152892,
          "161": -0.04659037780787078,
          "162": 0.024405565494596895,
          "163": -0.029400559540335186,
          "164": 0.08662576196664784,
          "165": 0.1265410313830058,
          "166": 0.02369996620954708,
          "167": -0.1417814325730082,
          "168": 0.1850887196742988,
          "169": 0.013064661485228743,
          "170": 0.05757715193878717,
          "171": -0.14374504416300127,
          "172": 0.032275390399491156,
          "173": 0.20600967287845456,
          "174": 0.1324160669681747,
          "175": -0.005260147210097373,
          "176": -0.02958072109322405,
          "177": -0.0690311333435716,
          "178": -0.16491159106780573,
          "179": 0.1347102625168965,
          "180": 0.05026525801567955,
          "181": -0.01765157466715553,
          "182": -0.12972067650497765,
          "183": -0.04651361183700709,
          "184": 0.03736480738379235,
          "185": 0.04645845517910089,
          "186": 0.0767421246240474,
          "187": -0.15128427137267625,
          "188": -0.13233173782865876,
          "189": 0.12863961860742731,
          "190": 0.07743525048575686,
          "191": -0.10709871742601809
        }
      },
      "12": {
        "bias": -0.23658518802300038,
        "weights": {
          "0": -0.11908804844504167,
          "1": 0.3120731640526581,
          "2": 0.09976085554397379,
          "3": 0.31197948881083876,
          "4": -0.14862363971436787,
          "5": 0.23192939233506876,
          "6": 0.09820996260043328,
          "7": 0.06121914496801413,
          "8": 0.01447111258720148,
          "9": 0.24334521176343935,
          "10": 0.07188927474794843,
          "11": 0.027139686672459612,
          "12": 0.20279028821792255,
          "13": -0.010889518004006104,
          "14": -0.1367100837835791,
          "15": 0.17603299280499365,
          "16": 0.1936686018903709,
          "17": 0.3458044269361707,
          "18": 0.23897564037834293,
          "19": 0.30608424517416183,
          "20": -0.2496261650982838,
          "21": 0.02927454800556426,
          "22": 0.07554967427373752,
          "23": 0.32513060987138187,
          "24": 0.23166451328378088,
          "25": 0.09562672419175203,
          "26": -0.12215760069612971,
          "27": 0.08349629555616295,
          "28": 0.11100644112790108,
          "29": 0.25359495757747574,
          "30": -0.06238221959458604,
          "31": 0.1755098617164382,
          "32": -0.03720433099216986,
          "33": 0.07355666569988836,
          "34": -0.21721880204180713,
          "35": 0.21640039797450825,
          "36": -0.2191127852285845,
          "37": -0.029383979489467124,
          "38": 0.25517502809325504,
          "39": 0.2514485720684535,
          "40": -0.09494779183826348,
          "41": 0.13163951705407465,
          "42": 0.35018264673435245,
          "43": -0.15094885628578777,
          "44": 0.12840732061883836,
          "45": -0.02782369751043235,
          "46": 0.07435592398834504,
          "47": 0.16079496608715446,
          "48": 0.18285603276248194,
          "49": -0.044860970248034836,
          "50": -0.10241938645805884,
          "51": -0.09094303165496304,
          "52": -0.04701781900200281,
          "53": -0.07878862711501264,
          "54": -0.029373896348204802,
          "55": -0.15719591013375758,
          "56": -0.07225430674083068,
          "57": -0.2540691262930958,
          "58": 0.07742193553388876,
          "59": -0.04474024757119123,
          "60": -0.160208907699702,
          "61": 0.03740082552684366,
          "62": 0.2132859920610486,
          "63": -0.16225344602953753,
          "64": -0.1563086394615145,
          "65": 0.0888338450346756,
          "66": 0.037023102074024664,
          "67": -0.08867992463350498,
          "68": -0.136239361769238,
          "69": -0.03481815616020363,
          "70": -0.1236587939831132,
          "71": 0.05282572998276833,
          "72": -0.16614030970930796,
          "73": -0.030216705706928103,
          "74": 0.20996614216732587,
          "75": 0.026195532478512605,
          "76": -0.06429883744409666,
          "77": -0.004309845170846328,
          "78": 0.15818331486406764,
          "79": 0.17742097344557223,
          "80": -0.16021522866920243,
          "81": 0.1518742623897795,
          "82": -0.04849027764784826,
          "83": 0.1013554188629264,
          "84": 0.07136679733335588,
          "85": 0.09077805371194567,
          "86": 0.1991826581728698,
          "87": -0.07618273577513414,
          "88": 0.09479142135688533,
          "89": -0.13042107300008096,
          "90": 0.17332164024254,
          "91": -0.12780913819690282,
          "92": 0.03739857359068151,
          "93": 0.00900146070591087,
          "94": -0.038116392583744496,
          "95": 0.12351952575371643,
          "96": -0.0704902286661398,
          "97": 0.274133145915793,
          "98": -0.027537480678256638,
          "99": -0.08407701216819426,
          "100": 0.141701799557602,
          "101": 0.008085683745241793,
          "102": 0.09848942682343477,
          "103": 0.15750081450207304,
          "104": -0.08145112231367324,
          "105": 0.07010169704224199,
          "106": 0.118349016328618,
          "107": 0.014797734893584588,
          "108": 0.05299362414859052,
          "109": -0.05661986368053639,
          "110": -0.03224960958617919,
          "111": 0.04110180418899442,
          "112": 0.11237372839724842,
          "113": 0.04726906513178936,
          "114": -0.009966506813844669,
          "115": 0.07430258925770955,
          "116": 0.07972781215617238,
          "117": 0.1179681081506012,
          "118": 0.036933382330588266,
          "119": -0.06007539584612102,
          "120": 0.10950939762768377,
          "121": 0.14568307016242052,
          "122": -0.10104294596239381,
          "123": 0.216122214613513,
          "124": 0.17362102784345354,
          "125": 0.03507941316182102,
          "126": 0.09586063645774448,
          "127": 0.09099834818448752,
          "128": -0.28566471337999183,
          "129": 0.24410952374160352,
          "130": -0.1957177128908811,
          "131": -0.18901627450404446,
          "132": 0.054871335241849895,
          "133": 0.10014513783058537,
          "134": 0.27606349711728695,
          "135": -0.5672108241187782,
          "136": 0.2849806644779107,
          "137": 0.41602304513165167,
          "138": 0.19032073548624664,
          "139": -0.06620126524175629,
          "140": -0.02026223589382447,
          "141": 0.10877833580212697,
          "142": 0.1581634687481146,
          "143": 0.3882490661829893,
          "144": -0.00024825045683153814,
          "145": 0.06163650074754271,
          "146": -0.15087217758339352,
          "147": 0.14997151137717668,
          "148": 0.07397232391144357,
          "149": 0.15335091274872126,
          "150": -0.1344650764291034,
          "151": -0.13874783059130125,
          "152": -0.08258770266966643,
          "153": 0.13741805352500558,
          "154": -0.10196231409677572,
          "155": -0.188226619180662,
          "156": 0.16342524763926447,
          "157": 0.06420217198566369,
          "158": -0.11952580722732128,
          "159": -0.12298912420754546,
          "160": -0.1442150508819716,
          "161": -0.020631760059765136,
          "162": 0.1724485392771802,
          "163": 0.1635562566614458,
          "164": -0.09395274126306666,
          "165": -0.22069090865981003,
          "166": 0.018506334446571616,
          "167": -0.11520053524164678,
          "168": -0.1546109635301034,
          "169": 0.1628758951357612,
          "170": 0.15030958513658638,
          "171": 0.1602596952607376,
          "172": -0.08754942676989155,
          "173": 0.16698135890569044,
          "174": 0.14414955446596361,
          "175": 0.014723841528625218,
          "176": 0.2317605522453736,
          "177": 0.14579896690849894,
          "178": -0.18662021676157817,
          "179": -0.1998405678040845,
          "180": 0.14356437253941318,
          "181": 0.14852535295534275,
          "182": 0.08033174419131288,
          "183": 0.3538132232576468,
          "184": -0.33125585324598156,
          "185": 0.38603943658580997,
          "186": -0.29240091520824135,
          "187": 0.013280673138086382,
          "188": -0.20535244970936303,
          "189": -0.1464039373617543,
          "190": 0.19168318972826812,
          "191": -0.32483610390123546
        }
      },
      "13": {
        "bias": -0.0058848883182805066,
        "weights": {
          "0": 0.14884236329067416,
          "1": -0.07714675990902937,
          "2": -0.18275144566239354,
          "3": -0.17251678155638137,
          "4": -0.08761319294876792,
          "5": 0.08787197317053397,
          "6": -0.13111047887312585,
          "7": 0.18145381170469221,
          "8": 0.13315513369342952,
          "9": 0.19941949509304516,
          "10": 0.2188816034868911,
          "11": 0.09121230362765306,
          "12": 0.19240117032995185,
          "13": 0.019153646216439744,
          "14": -0.09338893935163843,
          "15": -0.12707290659896267,
          "16": -0.15755886260911606,
          "17": -0.13653317560355116,
          "18": -0.09493488343204327,
          "19": 0.1410932174794377,
          "20": -0.13203241366267363,
          "21": 0.02492407162542488,
          "22": -0.07797549733153374,
          "23": -0.001022300344979383,
          "24": 0.13631278593227691,
